Language model created by QuickLM on Fri Jun 14 06:46:40 EDT 2019
Copyright (c) 1996-2010 Carnegie Mellon University and Alexander I. Rudnicky

The model is in standard ARPA format, designed by Doug Paul while he was at MITRE.

The code that was used to produce this language model is available in Open Source.
Please visit http://www.speech.cs.cmu.edu/tools/ for more information

The (fixed) discount mass is 0.5. The backoffs are computed using the ratio method.
This model based on a corpus of 11 sentences and 13 words

\data\
ngram 1=13
ngram 2=22
ngram 3=11

\1-grams:
-0.7782 </s> -0.3010
-0.7782 <s> -0.2218
-1.8195 GO -0.2218
-1.8195 JANNA -0.2218
-1.8195 LINK -0.2218
-1.8195 NAH -0.2218
-1.8195 NO -0.2218
-1.8195 NOPE -0.2218
-1.8195 REMOVE -0.2218
-1.8195 SLEEP -0.2218
-1.8195 YEA -0.2218
-1.8195 YES -0.2218
-1.8195 YUP -0.2218

\2-grams:
-1.3424 <s> GO 0.0000
-1.3424 <s> JANNA 0.0000
-1.3424 <s> LINK 0.0000
-1.3424 <s> NAH 0.0000
-1.3424 <s> NO 0.0000
-1.3424 <s> NOPE 0.0000
-1.3424 <s> REMOVE 0.0000
-1.3424 <s> SLEEP 0.0000
-1.3424 <s> YEA 0.0000
-1.3424 <s> YES 0.0000
-1.3424 <s> YUP 0.0000
-0.3010 GO </s> -0.3010
-0.3010 JANNA </s> -0.3010
-0.3010 LINK </s> -0.3010
-0.3010 NAH </s> -0.3010
-0.3010 NO </s> -0.3010
-0.3010 NOPE </s> -0.3010
-0.3010 REMOVE </s> -0.3010
-0.3010 SLEEP </s> -0.3010
-0.3010 YEA </s> -0.3010
-0.3010 YES </s> -0.3010
-0.3010 YUP </s> -0.3010

\3-grams:
-0.3010 <s> GO </s>
-0.3010 <s> JANNA </s>
-0.3010 <s> LINK </s>
-0.3010 <s> NAH </s>
-0.3010 <s> NO </s>
-0.3010 <s> NOPE </s>
-0.3010 <s> REMOVE </s>
-0.3010 <s> SLEEP </s>
-0.3010 <s> YEA </s>
-0.3010 <s> YES </s>
-0.3010 <s> YUP </s>

\end\
